// #### Generated By: http://www.cufonfonts.com ####
/*!
 * The following copyright notice may not be removed under any circumstances.
 * 
 * Copyright:
 * Copyright © 2009, 2010 NipCen Hacks Inc. All Rights Reserved.
 * 
 * Trademark:
 * Coyotris Comic is a trademark of Jayvee D. Enaguas.
 * 
 * Description:
 * Copyright © 2009, 2010 NipCen Hacks Inc. All Rights Reserved.
 * 
 * Manufacturer:
 * Jayvee D. Enaguas
 */
Cufon.registerFont({"w":513,"face":{"font-family":"Coyotris Comic","font-weight":400,"font-stretch":"normal","units-per-em":"1000","panose-1":"3 5 7 2 3 3 2 2 2 4","ascent":"800","descent":"-200","bbox":"54.796 -852 866.97 261.753","underline-thickness":"50","underline-position":"-50","unicode-range":"U+0020-U+20AC"},"glyphs":{" ":{"w":300},"!":{"d":"113,-206v-20,2,-42,-16,-41,-39r13,-332v3,-46,79,-50,79,-4v0,45,-2,89,-4,134v-2,45,-4,89,-7,134r0,-27v-4,56,13,129,-40,134xm60,-50v-4,-56,111,-76,108,-9v-2,43,-14,71,-50,71v-30,0,-56,-30,-58,-62","w":228},"\"":{"d":"139,-405v1,54,-82,57,-79,4r11,-201v-11,-28,12,-54,41,-51v36,3,41,37,38,80v-3,57,-12,110,-11,168xm268,-402v2,54,-79,57,-79,4r0,-210v3,-46,79,-50,79,-4r0,210xm79,-585r-1,-1v0,1,0,1,1,1","w":328},"#":{"d":"171,-102v-49,0,-113,8,-111,-40v1,-20,18,-40,44,-39r67,0r0,-99v-47,2,-92,-3,-92,-45v0,-31,33,-55,61,-36r31,-1v2,-53,-14,-128,40,-128v20,0,34,14,39,34r0,92r110,-1v1,-51,-11,-118,40,-118v20,0,34,14,39,34r0,85v58,5,153,-22,153,41v0,57,-94,33,-152,39r2,103r96,0v45,6,42,79,-4,79r-91,0v2,47,3,99,-39,100v-44,1,-42,-53,-40,-100r-114,0v4,41,-6,77,-39,77v-35,0,-44,-35,-40,-77xm363,-181r-2,-103r-111,2r0,101r113,0xm153,-349v-3,-5,-6,-8,-9,-9","w":652},"$":{"d":"305,2v3,46,1,95,-39,95v-40,0,-43,-45,-40,-90v-51,-6,-85,-33,-133,-42r3,0v-22,-3,-38,-19,-36,-42v3,-48,71,-39,106,-20v19,10,39,17,60,22r-2,-238v-70,-27,-142,-51,-142,-145v0,-55,61,-67,92,-98v13,-12,29,-18,48,-23v0,-50,-9,-114,40,-114v20,0,34,14,39,34r0,69v80,-2,152,7,159,77v4,51,-68,55,-80,13v-12,-15,-50,-7,-79,-9r1,133v101,22,192,42,205,156v16,142,-91,191,-202,222xm305,-79v53,-15,99,-45,125,-86v-2,-39,4,-88,-28,-99v-30,-11,-66,-17,-99,-27xm162,-441v17,17,38,28,61,39r-1,-91v-23,13,-41,34,-60,52xm107,-35v1,1,2,1,3,1v-1,0,-2,0,-3,-1","w":571},"%":{"d":"180,-6v-23,32,-72,17,-73,-22v10,-43,42,-72,57,-109v73,-180,196,-314,303,-462v10,-43,89,-34,77,17v-17,71,-84,127,-126,182v-70,93,-135,191,-185,304v-14,32,-32,61,-53,90xm438,-15v-56,4,-92,-41,-92,-87v0,-77,63,-129,147,-125v25,1,40,24,64,33v16,17,36,36,36,67v0,73,-77,107,-155,112xm274,-576v69,102,-77,205,-173,135v-21,-16,-41,-42,-41,-78v0,-72,70,-118,148,-104v14,2,24,13,33,26v13,1,24,8,33,21xm427,-104v17,27,68,-5,80,-21v-14,-2,-19,-17,-33,-21v-29,-1,-40,20,-47,42xm143,-515v14,22,67,26,66,-10v-13,-2,-25,-9,-31,-20v-21,0,-26,17,-35,30","w":653},"&":{"d":"375,-116v-7,50,9,122,-53,113v-39,-6,-29,-59,-30,-103v-90,6,-175,2,-218,-46v-10,-11,-14,-23,-14,-40v-3,-112,149,-150,230,-92v3,-60,-47,-179,26,-179v49,0,39,65,47,109v9,50,10,103,10,160v38,-10,78,-23,84,-64v16,-35,80,-29,76,15v-5,51,-25,85,-71,103v-26,11,-56,19,-87,24xm142,-202v31,24,92,18,145,20v-21,-39,-115,-80,-145,-20","w":593},"'":{"d":"140,-422v2,54,-78,57,-79,4r-1,-185v0,-25,16,-38,40,-38v32,0,40,26,40,59r0,160","w":201},"(":{"d":"252,-612v29,-29,99,-46,96,12v-2,31,-36,35,-49,58v-54,52,-81,126,-129,185v-48,59,-28,199,-8,273v33,64,104,104,152,154v31,32,-10,85,-51,61v-81,-78,-188,-129,-197,-280v-6,-90,-10,-195,35,-248v56,-65,90,-155,151,-215","w":408},")":{"d":"145,156v-16,46,-94,29,-78,-24v10,-36,48,-52,72,-75v110,-107,102,-410,23,-543v-25,-41,-94,-51,-102,-105v-5,-34,40,-53,66,-30v34,31,78,55,104,95v115,174,85,560,-62,662v-8,6,-16,12,-23,20","w":362},"*":{"d":"212,-509v4,-60,-29,-164,36,-164v57,0,35,90,43,144v27,-18,53,-37,75,-60v24,-25,70,-10,69,27v-15,60,-81,77,-123,110r99,66v43,10,33,81,-15,76v-62,-7,-83,-63,-134,-83v-9,-4,-17,-10,-26,-17v-34,10,-60,37,-79,62v-23,31,-73,18,-73,-22v0,-40,41,-59,66,-82v-36,-22,-70,-55,-90,-92v-7,-50,53,-68,75,-29v14,26,49,50,77,64","w":500},"+":{"d":"318,-147v2,54,-79,57,-79,4r0,-144r-139,-2v-23,-1,-41,-20,-39,-41v7,-63,115,-30,178,-37v1,-65,-22,-170,44,-170v45,0,31,52,32,91r3,81v61,7,166,-24,166,42v0,60,-104,33,-166,37r0,139","w":544},",":{"d":"139,49v-7,45,-79,37,-79,-9v0,-39,20,-73,23,-112v2,-24,19,-38,44,-38v66,16,19,111,12,159","w":222},"-":{"d":"100,-235v-24,-2,-39,-18,-40,-40v3,-20,18,-40,44,-39r244,0v45,6,42,79,-4,79r-244,0","w":442},".":{"d":"60,-71v0,-34,34,-48,76,-45v23,1,43,19,39,46v-5,38,-19,60,-51,60v-33,0,-64,-27,-64,-61","w":235},"\/":{"d":"133,-16v-23,37,-83,12,-72,-35v106,-180,163,-398,287,-560v15,-19,30,-42,61,-44v38,-2,56,46,28,69v-48,40,-75,100,-105,158v-35,68,-67,137,-97,207v-30,70,-62,140,-102,205","w":510},"0":{"d":"291,1v-168,46,-267,-107,-217,-277v34,-116,124,-169,275,-163v13,4,22,10,27,19v99,26,129,172,77,278v-33,67,-87,123,-162,143xm183,-318v-66,69,-67,276,80,241v92,-22,169,-125,126,-233v-10,-23,-35,-31,-49,-49v-66,0,-124,7,-157,41","w":538},"1":{"d":"184,-32r8,-286v-40,29,-132,63,-132,-4v0,-40,46,-38,72,-56v28,-20,49,-54,91,-54v60,0,49,83,47,143r-7,253v2,54,-80,57,-79,4","w":330},"2":{"d":"76,-10v-44,-42,11,-78,55,-85v64,-65,220,-82,178,-227v-32,-57,-158,-17,-174,28v-24,35,-83,13,-72,-35v28,-59,100,-96,186,-98v101,-3,147,58,147,156v0,108,-78,145,-146,191r154,0v45,6,42,79,-4,79r-292,1v-9,0,-20,-3,-32,-10","w":498},"3":{"d":"296,-210v28,-38,41,-133,-30,-122v-42,7,-95,28,-126,48v-24,35,-83,13,-72,-35v25,-52,97,-59,150,-82v36,-16,95,-19,123,7v31,29,58,50,58,103v0,69,-31,125,-65,168v78,20,110,107,104,207v-26,95,-119,138,-213,163v-57,15,-115,-1,-135,-40v-10,-18,-30,-33,-30,-57v0,-24,15,-38,39,-39v44,-1,37,60,81,60v76,0,138,-36,173,-87v4,-5,5,-13,5,-22v-6,-58,-9,-111,-70,-110v-43,0,-66,42,-107,44v-42,1,-52,-59,-21,-77v11,-7,23,-14,36,-19v34,-35,71,-70,100,-110","w":500},"4":{"d":"202,-140v-62,3,-159,10,-138,-59v11,-33,37,-48,56,-77v56,-84,97,-181,156,-263v26,-36,2,-102,58,-102v58,0,42,82,20,121r-68,122r-110,178r71,-1r70,3v0,-50,-10,-116,40,-116v20,0,34,14,39,34r0,86v45,2,102,-6,101,43v-1,41,-54,41,-101,37v-2,56,15,139,-39,139v-57,0,-37,-86,-40,-142xm71,-155v0,1,0,1,1,1v-1,0,-1,0,-1,-1","w":557},"5":{"d":"299,243v-97,11,-205,-12,-235,-82v-7,-50,51,-66,75,-29v23,34,125,45,169,22v40,-35,57,-92,61,-160v4,-79,-64,-104,-145,-93v-52,7,-63,70,-119,70v-28,0,-45,-19,-45,-49v0,-68,36,-124,33,-196v-3,-62,-6,-160,64,-121v83,3,180,17,247,-6v23,1,38,15,39,38v-24,86,-175,49,-271,48v0,61,-1,116,-15,164v36,-34,131,-36,185,-13v61,26,112,72,110,159v-2,97,-41,173,-93,222v-15,14,-35,23,-60,26","w":512},"6":{"d":"320,3v-187,32,-260,-118,-260,-291v0,-73,28,-135,47,-194v12,-36,40,-63,60,-92v18,-27,54,-37,81,-53v71,-41,130,29,188,46v20,6,33,17,33,39v0,41,-53,49,-82,25v-31,-14,-63,-53,-104,-38v-76,28,-114,104,-134,189v102,-26,239,-11,283,56v67,62,72,239,-19,282v-28,13,-54,24,-93,31xm286,-297v-56,-4,-102,9,-146,13v-2,120,39,215,150,215v60,0,118,-32,116,-100v-2,-75,-50,-123,-120,-128","w":545},"7":{"d":"235,231v-22,32,-73,17,-73,-22v0,-35,30,-61,42,-91r144,-360v6,-19,14,-37,23,-54r-271,-3v-23,-1,-41,-20,-39,-41v2,-21,19,-38,43,-38r265,3v50,-7,114,0,99,59v-5,23,-18,39,-27,59r-168,416v-11,25,-22,49,-38,72","w":530},"8":{"d":"80,-524v52,-81,180,-138,300,-91v20,-1,36,11,40,25v26,-17,67,-1,64,33v-1,10,-4,21,-13,29v-60,51,-102,125,-153,186v92,33,182,75,182,198v0,114,-102,153,-215,164v-165,16,-189,-206,-105,-304r16,-24v-46,-23,-85,-52,-110,-99v-36,-33,-32,-78,-6,-117xm281,-56v81,-3,168,-53,128,-135v-24,-50,-82,-64,-138,-86v-19,39,-54,64,-60,115v4,56,6,108,70,106xm367,-535v-44,-2,-75,-32,-120,-15v-31,12,-107,38,-102,89v30,35,47,72,96,89r82,-109v14,-19,29,-37,44,-54","w":560},"9":{"d":"287,-413v94,0,147,60,158,149v25,46,-19,94,-19,150v0,112,-28,232,-56,332v-12,43,-79,38,-78,-10v21,-77,31,-158,41,-243v-30,36,-81,70,-139,70v-98,0,-134,-86,-134,-186v0,-150,79,-262,227,-262xm187,-286v-46,49,-90,222,13,242v92,-29,128,-122,169,-202v-5,-57,-33,-96,-98,-87v-33,5,-65,27,-84,47","w":514},":":{"d":"60,-43v2,-45,31,-64,72,-71v75,13,43,119,-17,123v-30,1,-56,-20,-55,-52xm109,-453v34,4,67,13,65,51v-2,36,-25,65,-61,66v-72,2,-60,-107,-4,-117","w":237},";":{"d":"60,47v0,-33,27,-52,27,-91v0,-22,16,-38,39,-38v26,0,46,20,42,50v-6,50,-19,117,-70,117v-22,0,-38,-15,-38,-38xm130,-352v-38,3,-60,-9,-62,-42v-2,-38,43,-47,75,-47v22,0,34,13,39,33v0,37,-19,53,-52,56","w":242},"<":{"d":"402,-147v29,34,-12,89,-51,61r-249,-179v-27,-17,-50,-43,-41,-91v58,-106,208,-129,309,-190v40,-25,80,32,47,65v-79,52,-206,85,-274,147","w":490},"=":{"d":"100,-387v-24,-2,-39,-18,-40,-40v3,-20,18,-40,44,-39r410,0v45,6,42,79,-4,79r-410,0xm528,-286v47,7,41,81,-4,79r-407,-17v-23,-1,-41,-20,-39,-41v2,-21,19,-38,43,-38","w":622},">":{"d":"136,-64v-35,30,-84,-17,-57,-57r105,-90v37,-30,77,-59,118,-84r-110,-85r-46,-40v-34,-35,-86,-61,-86,-117v0,-38,59,-52,74,-16v54,79,136,133,209,192v17,13,33,22,47,27v50,-6,59,74,10,80v-102,41,-186,124,-264,190","w":493},"?":{"d":"266,-480v-23,-100,-197,-25,-206,-109v-6,-57,84,-38,126,-27v75,19,131,34,152,102v10,35,21,108,0,143v-23,38,-68,51,-104,75v-31,19,-8,93,-65,87v-19,-2,-34,-18,-36,-39v8,-55,19,-99,68,-118v34,-14,76,-27,71,-80v-2,-12,-4,-23,-6,-34xm219,-63v2,40,-6,67,-44,69v-36,2,-57,-48,-33,-73v5,-17,18,-30,39,-30v19,0,33,16,38,34","w":412},"@":{"d":"234,-144v0,-98,105,-123,211,-108v-11,-24,-45,-52,-77,-32r-26,13v-12,32,-77,28,-77,-14v0,-106,195,-108,241,-30v27,46,35,116,32,189v87,-26,145,-103,134,-216v-12,-114,-143,-128,-247,-153v-101,-24,-162,41,-208,99v-64,80,-109,263,-27,358v63,73,204,67,337,67v46,0,42,78,-4,79r-112,2v-247,11,-394,-150,-338,-394v17,-73,61,-133,103,-186v53,-68,137,-129,257,-105v154,31,323,70,317,265v-3,86,-32,140,-72,190v-48,60,-130,79,-233,79v-102,0,-211,-8,-211,-103xm435,-173v-46,0,-126,-19,-118,39v35,16,90,16,141,16r2,-45v-9,-2,-17,-10,-25,-10","w":811},"A":{"d":"513,12v-73,-8,-30,-112,-64,-169r-225,-6v-25,56,-55,107,-91,153v-24,30,-72,18,-73,-22v10,-45,46,-73,65,-111v69,-139,113,-302,163,-461v11,-37,93,-57,101,-4v25,169,92,297,141,441v15,45,20,90,20,140v0,25,-15,37,-37,39xm335,-480r-80,238r165,5r-46,-120v-15,-40,-28,-81,-39,-123","w":610},"B":{"d":"122,-10v-25,17,-63,0,-62,-32r14,-535v16,-66,94,-72,176,-72v87,0,154,34,154,119v0,62,-35,101,-72,129v51,15,86,52,90,115v7,12,10,24,10,39v-4,172,-125,243,-290,243v-7,0,-14,-3,-20,-6xm350,-234v0,-24,-9,-42,-10,-65v-31,-47,-119,-37,-193,-37r-8,253v107,-11,211,-31,211,-151xm324,-513v23,-67,-88,-62,-144,-51v-9,2,-18,5,-27,7r-3,143v59,-33,151,-31,174,-99","w":492},"C":{"d":"451,-122v-19,84,-99,144,-192,144v-45,0,-65,-31,-89,-54v-57,-55,-122,-115,-109,-228v20,-170,71,-365,250,-365v69,0,112,47,147,89v26,32,36,99,-15,99v-25,0,-39,-16,-44,-41v-35,-48,-67,-75,-127,-52v-88,58,-145,189,-123,338v16,42,59,88,91,118v41,38,86,-14,115,-33v17,-19,16,-52,52,-54v26,-1,43,15,44,39","w":541},"D":{"d":"60,-95r20,-373v2,-47,0,-95,4,-143v2,-25,24,-42,52,-35v173,-7,302,79,354,207v23,57,-2,145,12,210v-12,155,-156,183,-282,223v-23,6,-44,12,-71,12v-61,1,-92,-39,-89,-101xm394,-172v47,-47,17,-130,28,-204v5,-34,-15,-58,-30,-78v-50,-70,-127,-106,-230,-115r-10,262v-1,0,-1,0,-1,-1v4,83,-10,152,-7,232v101,-12,193,-39,250,-96xm152,-325v0,1,-1,2,-1,3v0,-1,1,-2,1,-3","w":562},"E":{"d":"67,-38v-15,-179,0,-377,0,-563v0,-28,25,-39,55,-38r292,0v45,6,42,79,-4,79r-265,0r-1,206r263,0v45,6,42,79,-4,79r-259,0r0,201r294,-2v30,5,46,42,24,65v-6,7,-16,14,-28,14v-114,4,-231,14,-339,-1v-17,-10,-26,-17,-28,-40","w":532},"F":{"d":"139,-42v2,54,-80,57,-79,4r7,-566v4,-26,27,-46,54,-34r289,2v45,6,42,80,-4,79r-260,-3r-2,168r216,0v45,6,42,79,-4,79r-214,0","w":504},"G":{"d":"399,-105v2,-42,17,-80,12,-123v-64,0,-160,20,-160,-43v0,-32,34,-54,62,-35r85,-5v91,-6,102,81,85,166v-10,49,-8,106,-59,106v-54,33,-180,12,-225,-15v-111,-68,-180,-270,-107,-424v14,-29,23,-61,49,-79v47,-55,173,-98,252,-46v31,20,58,48,77,78v15,46,-43,76,-69,40v-24,-33,-58,-62,-107,-62v-194,0,-192,358,-51,425v39,9,107,33,150,16v2,0,4,0,6,1","w":552},"H":{"d":"444,-29v2,54,-79,57,-79,4r0,-250r-225,-7r-1,243v2,54,-79,57,-79,4r4,-555v-10,-29,7,-54,36,-54v43,0,42,48,42,94r-1,189r224,7r-1,-246v2,-25,20,-44,44,-45v33,-1,43,35,34,63","w":506},"I":{"d":"141,-59v2,54,-79,57,-79,4r1,-507v-8,-30,4,-59,35,-59v36,-1,43,35,43,75r0,487","w":203},"J":{"d":"67,-111v-21,-31,9,-73,45,-62v27,9,33,38,55,52v54,18,101,52,172,46v11,-7,16,-26,15,-50r-24,-462v2,-45,76,-51,79,-4r25,451v3,90,-33,151,-121,147v-107,-4,-200,-50,-246,-118","w":494},"K":{"d":"145,-114v0,60,3,156,-63,116v-9,-6,-15,-16,-15,-30r-7,-566v2,-45,78,-52,79,-4r4,322v133,-96,247,-210,335,-350v9,-10,20,-15,40,-16v31,9,41,31,29,60r-67,91v-50,69,-108,130,-171,186v13,13,8,33,24,47v39,34,67,75,103,112v27,28,51,60,75,91v21,27,5,69,-30,66v-38,-4,-46,-35,-74,-65r-61,-65v-35,-40,-79,-88,-99,-135v-34,19,-53,60,-103,58v1,28,1,55,1,82","w":612},"L":{"d":"129,-2v-90,6,-70,-106,-68,-184r10,-412v3,-46,80,-50,79,-4r-10,394v0,41,1,83,2,124v98,-7,196,6,293,11v46,3,42,79,-4,79v-101,0,-204,-15,-302,-8","w":529},"M":{"d":"139,-52v2,54,-79,57,-79,4r0,-563v3,-46,71,-49,78,-5v3,2,2,8,3,12v53,51,92,124,139,181v57,-67,106,-150,180,-198v41,-27,83,13,66,60r-11,542v2,54,-80,57,-79,4r11,-486r-31,30v-44,41,-66,101,-110,143v-59,30,-84,-41,-108,-71r-59,-75r0,422","w":590},"N":{"d":"139,-52v2,54,-79,57,-79,4r0,-567v6,-42,75,-44,78,-1v6,85,51,127,69,198v27,106,100,173,145,262v2,-141,13,-281,-3,-416v1,1,1,2,2,3v-14,-28,3,-59,34,-59v39,0,45,47,45,87r0,492v0,52,-76,68,-95,24v-4,-33,-28,-48,-42,-73v-27,-46,-49,-92,-79,-135v-28,-41,-58,-82,-75,-133r0,314","w":490},"O":{"d":"308,-3v-215,9,-266,-202,-241,-415v9,-71,56,-128,83,-171v36,-58,118,-49,188,-25v10,8,22,10,35,17v90,78,141,205,107,372v-18,87,-55,145,-111,194v-18,16,-38,27,-61,28xm220,-545v-106,86,-132,458,66,461v101,-19,127,-147,127,-254v0,-96,-42,-143,-91,-197v-28,-6,-72,-35,-102,-10","w":550},"P":{"d":"142,-42v2,54,-79,57,-79,4r0,-543v-9,-25,6,-45,27,-49v7,-10,19,-15,35,-16v39,0,84,-9,125,-9v150,0,188,143,160,284v-8,44,-47,57,-80,77v-58,34,-106,47,-188,49r0,203xm331,-388v15,-65,14,-164,-45,-181v-43,-12,-99,-4,-144,1r0,244v72,1,126,-22,168,-54v7,-5,15,-8,21,-10xm329,-379v0,1,-4,4,-2,4","w":479},"Q":{"d":"100,-84v-74,-201,-69,-565,182,-558v86,2,144,47,166,116v60,6,38,98,41,164v4,95,-9,174,-38,243v22,22,44,47,48,83v3,25,-15,42,-38,43v-35,1,-40,-35,-54,-56v-56,62,-226,92,-283,8v-9,-13,-17,-26,-24,-43xm189,-89v11,21,47,19,75,19v33,0,60,-11,83,-34v-21,-17,-59,-30,-61,-63v-1,-35,39,-52,66,-30v12,11,24,18,37,27v29,-73,23,-188,19,-284v-13,-3,-24,-12,-31,-26v-8,-50,-44,-83,-100,-83v-192,0,-154,346,-88,474","w":559},"R":{"d":"142,-42v2,54,-79,57,-79,4r0,-543v-9,-25,6,-45,27,-49v7,-10,19,-15,35,-16v39,0,84,-9,125,-9v150,0,188,143,160,284v-8,44,-48,57,-80,77v-20,13,-42,22,-63,29v45,69,115,126,165,190v22,26,5,69,-30,66v-38,-3,-55,-44,-78,-68v-50,-52,-103,-104,-139,-170r-43,2r0,203xm331,-388v15,-65,14,-164,-45,-181v-43,-12,-99,-4,-144,1r0,244v72,1,126,-22,168,-54v7,-5,15,-8,21,-10xm328,-377r-2,3v1,-1,1,-2,2,-3","w":502},"S":{"d":"127,-34v-39,-10,-100,-63,-44,-98v21,-13,47,0,54,16v95,61,332,59,314,-96v-42,-100,-191,-99,-281,-148v-55,-30,-116,-64,-95,-153v12,-51,42,-68,85,-96v64,-42,197,-84,264,-18v29,29,31,118,-32,99v-17,-5,-27,-25,-31,-45v-56,-27,-138,21,-183,45v-22,13,-20,29,-25,55v62,83,207,80,291,140v41,30,97,57,90,127v-4,36,-8,69,-23,98v-57,108,-259,141,-384,74","w":595},"T":{"d":"100,-553v-24,0,-39,-18,-40,-40v3,-20,18,-40,44,-39v58,1,114,-21,168,-26v102,-10,212,-7,317,-1v46,3,42,80,-4,79r-208,-3r-1,558v2,54,-79,57,-79,4r0,-505r-3,-54v-67,4,-126,27,-194,27","w":683},"U":{"d":"437,-577v0,-45,77,-51,79,-4v7,177,18,369,-42,497v-36,77,-137,92,-243,92v-50,0,-71,-27,-103,-52v-89,-71,-73,-262,-60,-408v4,-46,20,-87,20,-142v0,-24,17,-41,41,-41v33,0,42,33,41,67v-4,77,-37,137,-29,219v8,85,-11,191,35,241v13,14,31,37,65,36v81,-3,160,-9,176,-82v27,-125,20,-276,20,-423","w":581},"V":{"d":"60,-594v0,-45,73,-51,79,-4v22,178,103,306,138,470r66,-97v56,-104,103,-230,117,-369v2,-24,19,-40,44,-38v20,2,37,21,35,47v-18,183,-86,352,-177,470v-17,22,-33,50,-40,79v-8,36,-78,52,-98,20v-25,-40,-20,-108,-37,-155r-77,-207v-23,-67,-50,-133,-50,-216","w":599},"W":{"d":"244,4v-56,11,-62,-46,-76,-80v-17,-39,-5,-89,-13,-135v-21,-140,-95,-249,-95,-397v0,-45,75,-51,79,-4v15,164,96,275,98,446v0,15,1,31,3,46r26,-54v52,-115,92,-236,140,-356v12,-30,28,-83,70,-88v71,6,32,114,60,170v26,109,78,193,107,299v33,-154,42,-338,135,-431v12,-14,28,-35,52,-34v35,1,49,44,25,69v-114,121,-114,355,-167,533v-12,42,-80,39,-83,-6v-33,-85,-57,-175,-95,-252v-26,-52,-40,-107,-53,-167r-61,161r-73,170v-19,39,-40,93,-79,110xm556,-375r1,1","w":927},"X":{"d":"100,-546v-27,-28,-44,-93,14,-94v22,-1,39,16,40,33r156,187v56,-64,106,-135,165,-196v24,-25,82,-28,82,18v0,39,-38,54,-58,78r-140,166r195,289v22,26,5,67,-30,66v-11,0,-23,-3,-31,-15r-185,-275r-109,156v-28,39,-36,100,-74,130v-38,30,-83,-23,-56,-57v-3,-6,12,-12,13,-18v51,-103,109,-192,177,-278r-130,-152v-11,-13,-19,-27,-29,-38","w":624},"Y":{"d":"327,-52v2,54,-79,57,-79,4r0,-234v-51,-110,-162,-170,-188,-299v-9,-44,56,-59,75,-22v28,96,99,155,149,229v59,-82,93,-194,183,-243v48,-26,82,48,35,72v-74,62,-110,179,-175,251r0,242","w":586},"Z":{"d":"365,-560v-88,-7,-177,3,-265,3v-35,0,-52,-43,-28,-67v22,-22,73,-15,114,-15v85,0,177,-10,250,7v66,16,19,99,-9,130v-101,117,-159,275,-228,422v66,-14,148,-8,217,0v46,5,42,77,-4,79v-40,1,-80,-8,-120,-9v-68,-3,-172,55,-192,-30v24,-99,79,-182,118,-270v28,-62,58,-128,100,-178v19,-22,33,-46,47,-72","w":531},"[":{"d":"62,-539v0,-54,-3,-117,52,-117v59,0,156,-22,156,41v0,45,-62,39,-111,38r-8,196r-3,167v0,0,-4,111,-8,167r0,-13v-2,36,0,71,2,107v38,6,77,-5,114,-5v21,5,34,19,34,41v0,60,-112,45,-176,40v-57,-5,-54,-73,-54,-137v0,-176,2,-354,2,-525","w":350},"\\":{"d":"65,-573v-13,-40,-1,-87,45,-79v38,7,33,65,50,94r138,220v54,90,121,189,144,302v9,47,-65,58,-78,17v-60,-191,-180,-341,-276,-497v-10,-19,-17,-38,-23,-57","w":502},"]":{"d":"162,-566v-45,4,-102,9,-102,-37v0,-44,58,-41,103,-45v79,-6,78,61,78,138r2,540v6,84,-60,90,-143,85v-23,-1,-39,-20,-39,-41v0,-46,61,-35,101,-38v7,-133,-3,-268,-2,-402","w":304},"^":{"d":"133,-362v-23,32,-73,17,-73,-22v0,-39,35,-60,51,-94r36,-78v24,-50,49,-102,91,-132v20,-9,39,-1,52,9v76,97,158,187,227,292v19,29,5,69,-30,66v-42,-4,-58,-56,-79,-85v-47,-65,-102,-123,-151,-185v-44,68,-75,165,-124,229","w":587},"_":{"d":"647,171v47,4,42,79,-4,79v-91,0,-181,-6,-271,-14v-90,-8,-181,-12,-272,-13v-23,-1,-41,-20,-39,-41v9,-64,117,-37,179,-33r271,17v45,3,91,1,136,5","w":741},"`":{"d":"194,-595v39,20,21,82,-29,75v-55,-21,-79,-78,-105,-129v-7,-50,53,-68,75,-29v16,30,29,67,59,83","w":276},"a":{"d":"446,-152v-2,73,16,151,-42,160v-26,-2,-43,-22,-40,-55r-165,3v-67,1,-143,-11,-139,-77v8,-132,153,-153,300,-136v-9,-65,-18,-129,-88,-129r-44,0v-24,14,-54,19,-70,40v-19,40,-86,18,-73,-31v12,-46,61,-57,97,-77v57,-32,162,-9,197,30v52,58,70,162,67,272xm366,-178v-86,-5,-196,-17,-225,49v72,12,148,4,225,3r0,-52","w":506},"b":{"d":"102,-6v-69,-9,-42,-119,-42,-196r0,-399v3,-46,79,-50,79,-4r0,186v51,-46,179,-41,226,5v44,43,84,115,84,194v0,156,-143,211,-317,201v-8,8,-15,15,-30,13xm140,-96v108,-6,230,-17,230,-125v0,-74,-35,-156,-130,-150v-25,1,-54,7,-60,26v-6,19,-20,31,-41,31","w":509},"c":{"d":"451,-317v7,52,-77,58,-79,4v-12,-37,-47,-93,-99,-84v-104,17,-164,187,-116,311v34,6,96,5,138,4v27,-14,61,-21,82,-41v18,-32,80,-22,73,19v-11,72,-98,108,-175,104r-85,-4v-126,12,-139,-106,-126,-222v11,-100,69,-185,140,-230v23,-14,53,-16,85,-20v92,9,151,73,162,159","w":511},"d":{"d":"417,-49v2,54,-78,57,-79,4r0,-15v-43,27,-101,32,-167,32v-153,0,-121,-221,-67,-308v28,-45,54,-101,123,-101v53,0,77,24,111,49r0,-210v3,-46,79,-50,79,-4r0,275v6,10,5,21,0,31r0,247xm157,-109v81,7,140,-9,181,-53r0,-132v-36,-21,-61,-56,-110,-62v-60,24,-87,103,-87,184v0,26,4,51,16,63","w":481},"e":{"d":"453,-322v3,95,-97,87,-188,87r-127,0v-4,37,20,51,37,71v33,39,66,54,131,47v27,-21,92,-26,91,22v-16,64,-124,75,-190,50v-63,-24,-117,-78,-143,-141v-10,-61,-1,-158,26,-196v51,-72,189,-98,293,-54v40,17,69,59,70,114xm372,-326v-12,-89,-215,-58,-223,12r120,0r79,6v11,-1,26,-3,24,-18"},"f":{"d":"170,-346v-49,1,-112,8,-110,-40v1,-20,18,-40,44,-39r69,0v12,-101,3,-232,127,-216v42,6,77,25,120,33v20,4,32,17,33,39v-19,84,-117,0,-177,9v-19,33,-17,87,-22,135r88,0v45,6,42,79,-4,79r-87,0r3,287v3,53,-77,58,-79,4r-6,-226v0,-22,0,-44,1,-65"},"g":{"d":"81,-195v0,-189,162,-298,339,-219v11,5,20,14,26,23v53,12,41,97,43,159r3,117v-6,156,-8,321,-122,370v-84,15,-215,6,-265,-37v-14,-12,-45,-23,-45,-53v0,-27,26,-45,55,-35v36,12,42,44,94,44v42,0,93,12,131,5v62,-36,58,-126,69,-211v-35,28,-77,43,-137,41v-117,-4,-191,-82,-191,-204xm281,-69v124,1,123,-134,120,-255v-11,-4,-17,-13,-24,-22v-23,-12,-51,-16,-83,-16v-88,0,-135,76,-135,164v0,75,44,129,122,129","w":552},"h":{"d":"139,-39v2,54,-79,57,-79,4r0,-556v3,-46,79,-50,79,-4r0,182v59,-64,211,-56,245,21v43,96,39,241,26,366v-5,44,-82,38,-79,-9r10,-171v-3,-80,-6,-182,-87,-175v-47,4,-73,51,-115,64r0,278","w":478},"i":{"d":"68,-325v-4,-55,-28,-150,36,-150v28,0,45,22,37,53v11,117,13,245,13,373v0,54,-79,57,-79,4v0,-47,0,-95,-1,-141v-1,-46,-3,-92,-6,-139xm63,-596v0,-57,92,-90,106,-27v10,43,-15,83,-53,83v-27,0,-53,-27,-53,-56","w":232},"j":{"d":"150,81v-13,60,17,165,-44,165v-36,0,-44,-37,-40,-79v-13,-22,1,-47,1,-75r6,-517v3,-46,80,-50,79,-4r-6,394xm113,-637v26,0,47,14,46,44v16,33,-8,65,-45,63v-33,-2,-52,-19,-52,-49v0,-31,17,-58,51,-58","w":224},"k":{"d":"384,-471v49,-24,82,48,35,72v-70,35,-140,91,-197,141v56,66,125,140,206,181v38,19,22,83,-29,75v-91,-43,-170,-123,-232,-197v-8,8,-15,12,-22,13v-3,48,-6,96,-6,144v0,54,-79,57,-79,4v0,-157,21,-305,30,-456v3,-50,5,-100,7,-151v2,-46,79,-50,79,-4v0,58,-4,116,-8,173v-4,57,-9,114,-14,172v67,-59,147,-127,230,-167","w":510},"l":{"d":"139,-39v2,54,-79,57,-79,4r0,-593v3,-46,79,-50,79,-4r0,593","w":199},"m":{"d":"139,-32v2,54,-79,57,-79,4r0,-390v2,-39,60,-51,74,-15v35,-14,72,-39,118,-39v50,0,82,20,106,47v51,-61,232,-109,286,-14v55,98,30,255,30,390v0,54,-79,57,-79,4v0,-127,38,-295,-36,-369v-60,3,-129,14,-151,55v-4,5,-9,9,-14,12v21,90,3,200,3,298v0,54,-82,57,-79,4r10,-166v-3,-82,-2,-178,-81,-182v-21,-2,-71,21,-94,46v-3,5,-8,8,-14,9r0,306","w":744},"n":{"d":"143,-49v2,54,-78,57,-79,4r-4,-380v3,-46,73,-50,79,-4r0,4v48,-24,110,-47,180,-48v139,-4,107,165,107,297v0,55,10,132,-18,166v-21,27,-67,7,-66,-28r8,-208v0,-54,-2,-113,-19,-149v-59,-6,-99,26,-147,37v-25,6,-26,29,-45,38","w":487},"o":{"d":"418,-406v80,66,79,277,0,340v-42,34,-90,78,-169,60v-216,-1,-244,-357,-94,-454v44,-29,116,-43,167,-12v43,11,75,33,96,66xm140,-250v0,105,52,190,165,166v88,-19,115,-153,71,-251v-33,-41,-55,-76,-132,-72v-76,4,-104,79,-104,157","w":538},"p":{"d":"139,202v2,54,-79,57,-79,4r0,-648v3,-46,73,-50,79,-4r0,12v61,-33,179,-72,243,-14v103,47,76,266,25,351v-31,51,-73,88,-146,88v-50,0,-97,-15,-122,-44r0,255xm377,-273v0,-68,-25,-129,-90,-129v-59,0,-103,37,-148,53r0,192v29,4,46,32,61,53v20,6,38,16,62,17v82,-15,115,-95,115,-186xm173,-133v1,3,5,14,3,7xm166,-142v1,0,1,0,1,1"},"q":{"d":"455,198v2,54,-79,57,-79,4r-1,-246v-60,15,-113,41,-185,41v-108,0,-130,-113,-130,-211v0,-132,67,-228,160,-276v34,-18,85,-15,111,9v38,37,99,43,121,96xm242,-413v-85,47,-144,240,-56,330v68,1,130,-30,188,-44r-1,-233v-20,-18,-50,-25,-69,-45v-13,-14,-41,-20,-62,-8","w":515},"r":{"d":"139,-39v2,54,-79,57,-79,4r0,-403v3,-46,73,-50,79,-4r0,44v49,-37,122,-51,203,-55v53,-3,59,76,6,79v-87,5,-170,16,-186,94v-3,14,-12,22,-23,27r0,214","w":446},"s":{"d":"282,-2v-102,1,-207,-4,-222,-88v-8,-45,54,-56,75,-22v32,52,175,41,203,-7v-40,-66,-133,-75,-184,-130v-26,-29,-66,-57,-84,-91v-7,-65,37,-87,80,-108v79,-40,244,-46,252,60v4,48,-61,56,-78,17v-26,-57,-133,-7,-166,12v21,20,41,49,66,66v75,50,185,71,196,185v-7,59,-62,75,-104,99v-9,5,-21,7,-34,7","w":480},"t":{"d":"158,-451v7,-60,-19,-157,42,-157v20,0,34,14,39,34r-2,124v49,3,118,-13,118,42v0,49,-70,37,-120,37r-6,290v43,7,109,3,109,52v0,20,-17,35,-38,38v-70,-5,-155,-9,-153,-86r9,-294v-20,0,-38,4,-56,4v-46,0,-54,-76,-9,-79","w":415},"u":{"d":"317,-66v-32,10,-50,42,-81,50v-205,49,-179,-230,-170,-426v3,-46,79,-50,79,-4v0,114,-20,251,19,339v6,13,13,18,28,18v52,0,68,-62,125,-53r0,-300v3,-46,79,-50,79,-4r0,407v2,54,-78,57,-79,4r0,-31","w":456},"v":{"d":"306,-56v8,38,-34,65,-63,41v-8,-7,-14,-16,-15,-30v-21,-168,-120,-271,-168,-413v0,-40,54,-50,75,-19v22,31,37,80,54,116v30,65,68,129,92,199v60,-104,136,-202,180,-320v14,-36,77,-30,76,15v-19,88,-69,153,-111,222r-58,95v-19,32,-40,63,-62,94xm306,-201v1,-1,2,-4,4,-7v-1,2,-3,4,-4,7xm312,-212v-1,2,-2,3,-2,4v1,-1,2,-2,2,-4","w":597},"w":{"d":"96,-111v-5,-130,-36,-246,-36,-371v0,-45,75,-51,79,-4v9,115,32,219,35,338v55,-89,95,-193,126,-303v11,-40,67,-96,103,-45r31,88v25,88,82,151,100,247v29,-100,86,-181,102,-294v4,-24,19,-40,44,-38v51,5,31,82,18,122v-34,100,-81,183,-102,299v-7,40,-21,87,-70,87v-83,-34,-51,-178,-103,-249v-30,-42,-45,-92,-64,-143v-38,135,-105,274,-187,367v-35,23,-73,-6,-68,-49v-1,-12,1,-28,-2,-38r-1,21v-3,-6,-4,-26,-5,-35","w":775},"x":{"d":"92,-416v-33,-35,-9,-103,42,-78v10,6,16,14,19,25v35,46,81,82,106,138r92,-90v36,-27,34,-82,92,-82v34,0,46,53,16,71v-42,64,-100,114,-155,166v54,78,124,146,164,235v15,32,-15,65,-50,52v-28,-10,-35,-47,-52,-72v-35,-52,-74,-101,-112,-150v-21,32,-39,66,-58,99v-20,33,-41,68,-71,92v-37,28,-84,-17,-57,-57v61,-55,88,-141,138,-206v-31,-54,-72,-99,-114,-143","w":537},"y":{"d":"104,147v25,0,43,14,70,14v57,-31,88,-94,103,-165v-52,7,-67,-43,-81,-77r-28,-68v-39,-102,-89,-207,-101,-331v-5,-49,70,-59,78,-10v20,135,75,251,119,366v8,19,16,37,26,52v14,-116,28,-229,66,-320r41,-97v16,-35,77,-30,76,15v-17,72,-60,129,-74,204v-34,178,-34,381,-151,482v-38,33,-105,34,-153,13v-21,-4,-35,-17,-35,-38v0,-22,18,-40,44,-40","w":533},"z":{"d":"100,-424v-24,-2,-39,-18,-40,-40v3,-20,18,-39,44,-39r232,-3v61,5,172,-20,146,63v-20,33,-53,58,-75,89r-149,209v-15,20,-48,56,-67,79v46,4,100,-6,142,-6r-29,0r136,-4v30,5,46,42,24,65v-20,23,-64,17,-106,19r-125,5v-67,-3,-159,7,-148,-66v18,-42,54,-64,79,-99r170,-239v10,-13,21,-25,34,-35","w":546},"{":{"d":"161,-383v0,-146,4,-279,145,-283v47,-1,57,60,18,77v-32,4,-63,8,-74,36v-33,82,26,251,-54,290v57,81,42,227,42,353v0,43,13,79,57,78v32,0,57,12,57,42v0,50,-67,39,-107,30v-121,-28,-70,-207,-82,-332v-19,-41,-3,-121,-53,-136v-25,-7,-50,-18,-50,-48v0,-41,44,-52,83,-52v24,0,18,-33,18,-55xm153,-329r2,0r-2,0","w":412},"|":{"d":"139,188v2,54,-79,57,-79,4r0,-796v3,-46,79,-50,79,-4r0,796","w":199},"}":{"d":"86,-568v-39,-16,-31,-80,17,-78v113,4,164,77,165,188v0,52,-21,118,6,156v2,6,5,13,7,20v27,7,56,19,51,54v-3,25,-29,35,-60,35v-88,75,40,283,-67,367v-30,24,-49,56,-99,56v-47,0,-52,-69,-9,-79v22,2,24,-16,39,-25v67,-39,20,-155,20,-237v0,-54,23,-108,55,-136v-5,-8,-9,-18,-12,-30v-48,-57,15,-178,-20,-251v-13,-29,-54,-36,-93,-40","w":392},"~":{"d":"147,-258v-14,13,-23,37,-49,36v-27,-2,-41,-24,-37,-53v32,-61,106,-96,190,-89v30,2,59,22,87,51v24,1,44,6,59,17v53,-11,76,-57,129,-65v46,-7,58,63,18,77v-64,23,-117,97,-199,51v-57,2,-69,-40,-110,-56v-34,1,-62,20,-88,31","w":629},"\u00c7":{"d":"315,8v-8,118,-79,171,-194,171v-46,0,-53,-68,-9,-79v75,-1,118,-26,124,-98v2,-24,19,-40,44,-38v19,1,36,20,35,44xm451,-122v-19,84,-99,144,-192,144v-45,0,-65,-31,-89,-54v-57,-55,-122,-115,-109,-228v20,-170,71,-365,250,-365v69,0,112,47,147,89v26,32,36,99,-15,99v-25,0,-39,-16,-44,-41v-35,-48,-67,-75,-127,-52v-88,58,-145,189,-123,338v16,42,59,88,91,118v41,38,86,-14,115,-33v17,-19,16,-52,52,-54v26,-1,43,15,44,39","w":541},"\u00d6":{"d":"366,-852v31,0,49,20,49,56v-7,34,-29,66,-64,66v-28,0,-45,-24,-44,-59v1,-35,25,-63,59,-63xm141,-825v21,-51,112,-13,104,37v-4,26,-25,48,-54,51v-37,-6,-66,-48,-50,-88xm308,-3v-215,9,-266,-202,-241,-415v9,-71,56,-128,83,-171v36,-58,118,-49,188,-25v10,8,22,10,35,17v90,78,141,205,107,372v-18,87,-55,145,-111,194v-18,16,-38,27,-61,28xm220,-545v-106,86,-132,458,66,461v101,-19,127,-147,127,-254v0,-96,-42,-143,-91,-197v-28,-6,-72,-35,-102,-10","w":550},"\u00dc":{"d":"392,-852v31,0,49,20,49,56v-7,34,-29,66,-64,66v-28,0,-45,-24,-44,-59v1,-35,25,-63,59,-63xm167,-825v21,-51,112,-13,104,37v-4,26,-25,48,-54,51v-37,-6,-66,-48,-50,-88xm437,-577v0,-45,77,-51,79,-4v7,177,18,369,-42,497v-36,77,-137,92,-243,92v-50,0,-71,-27,-103,-52v-89,-71,-73,-262,-60,-408v4,-46,20,-87,20,-142v0,-24,17,-41,41,-41v33,0,42,33,41,67v-4,77,-37,137,-29,219v8,85,-11,191,35,241v13,14,31,37,65,36v81,-3,160,-9,176,-82v27,-125,20,-276,20,-423","w":581},"\u00e7":{"d":"373,8v-8,118,-79,171,-194,171v-46,0,-53,-68,-9,-79v75,-1,118,-26,124,-98v2,-24,19,-40,44,-38v19,1,36,20,35,44xm451,-317v7,52,-77,58,-79,4v-12,-37,-47,-93,-99,-84v-104,17,-164,187,-116,311v34,6,96,5,138,4v27,-14,61,-21,82,-41v18,-32,80,-22,73,19v-11,72,-98,108,-175,104r-85,-4v-126,12,-139,-106,-126,-222v11,-100,69,-185,140,-230v23,-14,53,-16,85,-20v92,9,151,73,162,159","w":511},"\u00f6":{"d":"360,-652v31,0,49,20,49,56v-7,34,-29,66,-64,66v-28,0,-45,-24,-44,-59v1,-35,25,-63,59,-63xm135,-625v21,-51,112,-13,104,37v-4,26,-25,48,-54,51v-37,-6,-66,-48,-50,-88xm418,-406v80,66,79,277,0,340v-42,34,-90,78,-169,60v-216,-1,-244,-357,-94,-454v44,-29,116,-43,167,-12v43,11,75,33,96,66xm140,-250v0,105,52,190,165,166v88,-19,115,-153,71,-251v-33,-41,-55,-76,-132,-72v-76,4,-104,79,-104,157","w":538},"\u00fc":{"d":"320,-652v31,0,49,20,49,56v-7,34,-29,66,-64,66v-28,0,-45,-24,-44,-59v1,-35,25,-63,59,-63xm95,-625v21,-51,112,-13,104,37v-4,26,-25,48,-54,51v-37,-6,-66,-48,-50,-88xm317,-66v-32,10,-50,42,-81,50v-205,49,-179,-230,-170,-426v3,-46,79,-50,79,-4v0,114,-20,251,19,339v6,13,13,18,28,18v52,0,68,-62,125,-53r0,-300v3,-46,79,-50,79,-4r0,407v2,54,-78,57,-79,4r0,-31","w":456},"\u0131":{"d":"68,-325v-4,-55,-28,-150,36,-150v28,0,45,22,37,53v11,117,13,245,13,373v0,54,-79,57,-79,4v0,-47,0,-95,-1,-141v-1,-46,-3,-92,-6,-139","w":214},"\u20ac":{"d":"153,-193v-45,2,-94,2,-93,-40v1,-37,45,-43,90,-39r20,-100v-41,8,-84,2,-84,-37v0,-20,18,-40,44,-39v22,0,44,-1,66,-3v37,-90,91,-174,203,-174v69,0,112,47,147,89v26,32,36,99,-15,99v-25,0,-39,-16,-44,-41v-35,-48,-67,-76,-127,-52v-28,11,-54,46,-72,75v48,3,113,2,113,51v0,26,-21,39,-51,38v-28,-11,-60,-13,-98,-12v-13,35,-18,66,-21,106v57,5,150,-20,149,41v-1,56,-90,32,-143,39v22,49,67,113,119,133v42,-10,80,-34,100,-67v4,-19,16,-33,39,-35v26,-2,43,15,44,39v-19,84,-99,144,-192,144v-45,0,-64,-31,-89,-54v-46,-42,-87,-93,-105,-161","w":629},"\u00a0":{"w":300}}});
